14 100
sentence -0.0027976376 0.0006287669 0.0021016442 -0.0017244994 -0.0010250243 0.004459382 -7.681882e-07 -0.0028712198 -0.0027943715 0.004857506 -0.0013729418 -0.002439624 -0.0011962159 0.00034527495 0.00074366725 0.0030711053 0.001055312 0.0015977708 0.0031470207 -0.00036009584 -0.0030546496 0.0038478759 -0.0009160596 0.0046211737 0.0017443288 0.004232798 0.0047501065 0.0044804 -0.0028185234 0.002419792 0.0016467356 0.0021613082 0.0010679538 0.0046896753 0.002444417 -0.0006948986 -0.0004163865 -0.0031735278 0.0026248086 -0.0011645051 -0.0013236419 -0.0019073252 0.0039486866 -0.000778402 0.0025303327 0.0036863314 -0.0022488 0.0010220428 -0.0007660185 0.00154806 -0.00064526766 -0.0015652437 0.0010993931 -0.00040350057 0.00038845305 -0.0024422682 -0.0037505918 -0.0007721464 -0.0030950757 0.004030794 -0.0012874764 -0.0028442813 -0.0014891035 0.0017713051 0.0033430387 0.00026976885 0.0026950694 -0.0012791373 -0.0032101397 0.0033237261 0.0037159587 -0.00067053165 0.00045173906 0.0039441064 -0.004562684 -0.004209437 -0.00056189636 0.00097053044 -0.004451928 -0.00072413066 -0.002274072 -0.002118334 -0.003926362 -0.0031415534 0.0031266373 0.00058922335 -0.0033911201 0.0011217291 -0.003683279 -0.0018414676 0.00088889524 0.0034585183 -0.003804907 -0.001118787 0.002746825 0.001655773 0.004195696 0.0016958298 0.0015489458 0.00061485585
the -0.0034035235 -0.0043018297 -0.0025969185 0.0020346954 0.0013231728 -0.0033069248 -0.00081988244 0.000405877 0.003914066 -0.0010208952 -0.0049516982 0.0030922508 -0.0044347034 -0.0013239891 -0.0019536766 0.002426839 -0.0046582953 0.0020880566 0.0040293974 -0.00021074414 0.0026084087 -0.0024616767 -0.002808908 -0.0026494644 0.003186132 -0.0021488455 -0.00015562786 0.00074165524 0.0048600985 0.0037522248 -0.00046013828 0.0018601002 0.001576092 -0.0038892876 0.0047444147 -0.0036757041 -0.004710558 0.004652395 -0.0021750953 0.0038810368 0.004738231 0.0015205067 0.003935149 0.00035675848 -0.0038617193 -0.0045816647 -0.00082817156 0.003777471 -0.0013434096 -0.004670857 -0.0018398031 0.0025031709 -0.003182774 -0.00497217 -0.00087376696 0.0013471218 0.0045405393 0.0030741985 0.0016610579 0.0033293322 0.0036006493 -4.5420427e-05 -0.0010156084 -0.0039039 -0.0009932097 0.0029107984 -0.0030852149 0.0019500473 0.0006992593 0.0019499104 0.0035819164 0.0035271777 -0.00041021488 0.0026530246 -0.0015747412 0.00044627907 -0.0017321032 0.00039882364 0.0044560283 0.0027849493 0.0040776026 0.0046867486 -0.0034858985 -0.004942478 0.0044396874 -0.00048360453 0.00045986284 -0.000706986 0.0037864116 -0.0022832088 0.004671012 0.0031874364 0.0047864793 -0.0044124797 0.003551028 0.0016432969 -0.0019245172 -0.0010010228 0.0045936788 -0.003090722
this 0.00046056297 -0.00022847328 0.0024009817 0.004964192 -0.0049235206 -0.000714402 -0.0018792772 -0.004680099 0.0009705185 0.0008283808 0.0029795442 0.00084295665 0.0006278423 -0.0038808424 -0.0007627268 0.0034545162 0.0011633725 0.0034153992 -0.002968335 -0.000788308 -0.004338483 -0.0034853371 -0.0015297174 -0.0019593034 0.003802544 -0.0028432335 -0.0034795755 0.00079559634 0.002109004 -0.0009080863 -0.0029282433 0.0026147203 0.0017868953 -0.004829012 -0.00089040067 0.0010420167 0.0001771263 0.0024039098 0.0012285489 2.8096238e-06 0.0044405027 -0.0021401588 0.0029611695 0.0048235003 0.0039271517 -0.0011191956 0.0014749091 0.0003774779 -0.0034867483 0.0048135705 -0.0018104184 0.002949518 -0.0019799247 -0.004410885 0.0034257716 -0.0017076276 -0.0009488938 0.0025016577 -0.0038980753 0.0049883123 -0.00010444049 0.0036121006 -0.0028610185 0.0031706674 -0.002341263 -0.00092243263 0.0029706748 -0.0032577815 0.0030733498 -0.003492402 -0.0026546603 -0.0014287266 -0.004328495 -0.0014327782 4.737903e-05 -0.0006248534 0.0014184712 0.004671067 -0.00020258452 0.0030061807 0.0041867415 -0.0031837465 -0.0027303025 -0.002565481 0.00493989 0.00443967 -0.0019960701 -0.00398854 -0.00027599957 0.0045225807 0.0010399873 -0.0017781646 0.004942132 -0.003356287 -0.0042035896 -0.0033089495 0.0048669297 -0.0017715578 -0.0016661716 -0.0009832729
is -0.00011457584 -0.0030609895 -0.0026199096 -0.0039670127 -0.0031011763 0.0025400922 -0.0016464959 0.0019060065 -0.0038123196 -0.0024323384 0.00017709991 -0.00089189346 0.001411189 0.0017765161 -0.0025473717 0.00088167586 -0.0025246392 -0.00032365843 0.0043834564 -0.0041097687 0.0032004209 0.0024096814 0.0029670955 -0.0012454612 0.0019491247 -0.0013937595 -5.0031183e-05 0.00020299143 -0.0027173571 -0.0022762758 0.004082361 -0.00209357 0.0005067609 -0.0048456695 -0.001805874 -0.002646691 -0.0006604335 -0.0020461427 0.0036795444 -0.0035509174 -0.00067838863 -0.00051140727 0.0009882825 -0.0017659707 0.0033184406 0.0048073824 -0.003478507 -0.0033307686 0.0004939794 -0.0025852544 0.004288869 -0.0037102452 -0.003664227 -0.0042384486 -0.0035398742 -0.002340842 0.000121545876 -0.0040219952 -0.0030974727 0.0032550406 0.0012930186 -0.00017932056 -0.0041721715 0.0028933818 -0.0011868008 0.0041471696 -0.0020701005 0.0019119482 0.0016876714 0.00251376 0.0024042528 -0.00033298152 -0.0011151088 0.000705062 -0.0042882157 0.00071679265 0.001987634 -0.0027727 -0.0028636346 0.004425983 -0.0033510549 0.0018248186 -0.0032137102 0.0016246114 0.0034615712 0.00066744833 -0.004490474 0.0004076484 0.0026531294 0.0027945463 0.0013100016 0.0023180696 -0.0022746485 0.0035338884 -0.0028798096 -0.0015642294 0.0006285142 -0.0008385561 -0.0030663514 -0.0005464773
first -0.0025907455 0.0009442903 0.0045755375 -0.0009079051 -0.0015671805 0.003729742 -0.0018007158 -0.00197561 0.0003178513 0.0026145154 -0.0036395632 -7.866735e-05 -0.003623723 0.00086724677 0.001261504 0.000988519 0.00067103875 0.004320872 0.0037089728 -0.0012536264 0.002905332 0.0005340234 0.0046130805 -0.0017276888 -0.0013068526 -0.0049883523 -0.00050979765 0.0018368498 0.0034850475 -0.0029307192 -0.0034404143 -0.0003516029 -0.004901523 -0.003218383 0.0017291934 -0.0015371694 -0.003038268 -0.0013850695 0.0030210365 -0.001950127 -0.0032910497 -0.0026437696 0.0023763787 0.00221315 -0.0033080513 0.0004376068 0.00072793174 -0.004201216 0.0048235967 -0.0030627588 -0.004632191 -0.0026567103 -0.0041407263 0.00033805025 -0.0022904114 0.0021587026 -0.0033861543 0.0009207438 -0.0020451923 -0.0018503047 -0.0031501444 -0.0029777228 0.0036362153 0.0014970129 0.00048400988 -0.0044018957 -0.0019684958 -0.004463018 -0.0039775046 0.0038784703 0.004275247 -0.0039010497 0.0038539274 -0.004774186 0.0026221205 -0.00017666571 -0.0012368159 -0.0011574607 -0.0017872077 0.0010957854 0.00013134493 -0.0029994952 0.002873264 -0.00485925 0.0028389134 0.0015504787 0.0016583916 -0.00042100134 0.0008250461 0.0046888636 -0.0046513136 0.0048763882 -0.0020824105 -0.0007495618 0.0027177376 -0.0027349894 6.5154105e-05 0.0012995412 -0.00090057764 0.0037622366
for -0.004344251 -0.004063837 -0.0028351366 0.003291029 -0.0008734329 -0.0038281858 0.0034099598 0.0036931904 -0.0010910309 0.0013985464 0.0024703813 0.004530236 0.0019324481 0.0016126675 0.002123752 0.0048839957 0.0005980921 0.0038180582 0.00088149443 -0.0036825864 0.0010840169 0.0014935313 0.0042219213 0.00039485874 0.003105349 0.00035072962 -0.0023585102 -0.0020158982 -0.0025268227 0.0010192672 0.00021050035 -0.0015037459 0.00142257 0.0047211787 -0.000613978 -0.0014577239 0.004218719 0.0004917779 -0.0040715337 0.0030737855 -0.0021363953 -0.0005405187 -0.0014297382 -0.004033621 0.002435323 -0.0027004965 -0.0036924782 -0.001336904 -0.0025978808 0.00037784377 1.0088874e-05 -0.0014952254 -0.004497178 0.0037571052 0.00065511954 -0.001174707 -0.00048017272 -0.0035097762 0.003764736 0.001010771 0.003935327 -0.0010350579 -0.0018535471 -0.0018023793 -0.0013481203 -0.0038321072 0.0015395593 0.00057127053 -0.004810381 -0.0011695625 -0.0020221141 0.003334547 0.00036295757 0.00093296234 0.0007789506 -0.00038284736 0.0046569635 -0.0044847257 -0.0020967803 0.0044383467 -0.0026480837 0.0045621675 -0.0011675991 -0.0023446663 0.0029150709 -0.0012993288 0.0047531566 0.0006951472 -0.003105938 0.0010544241 0.0015548483 0.0045096804 0.0032727283 -0.001789541 0.0034270217 -0.00054800045 -0.0006770176 0.0027236142 -0.0037835124 6.538051e-05
word2vec 0.0031072334 -0.0039037396 -0.0034780176 0.0013903818 0.0022842146 -0.0025840816 -0.0022206092 0.0025964372 -0.0039320453 -0.004444997 0.0014196521 -0.0023530119 -0.003848999 0.00021809057 -0.0021174422 0.0033067092 0.0048742536 -0.0022192132 0.004469761 0.0026256347 0.0017896519 -0.002601331 -0.00407977 0.0014233602 0.0014723301 -0.0025613317 -0.0028742054 0.0038367792 0.0020357457 -0.0036305175 -0.0008067847 0.0011186427 0.00016105785 -0.0040289476 -0.0040405355 -0.004436152 -0.00047877428 0.00493766 -0.0049409266 -0.0020571928 -0.00074148143 -0.0032946055 4.028444e-05 -0.0045454483 0.0022496423 0.0022348207 -0.0009690036 -0.0049662073 -0.0037464208 0.00436221 0.0010472954 0.0046309503 0.0040269555 -0.00021554044 -0.0012302301 0.0047407704 -0.002613922 -0.004371441 -0.0021256336 5.772473e-05 0.0009914204 -0.0029261643 -0.003217863 -0.0018929606 -0.00013876689 -0.00066721323 -0.0038119147 0.002110913 -0.0044548395 -0.004961435 -0.003901706 -0.0018707326 -0.0033866256 -0.00019925168 0.0004315495 0.002709674 0.00019978164 0.0038502736 -0.0018085953 0.004123289 -0.004489371 -0.00056118274 -0.0018243755 -0.0023055566 -0.0049645314 -0.000806027 -0.0030336464 -0.004832355 0.004423346 0.0048523694 -0.003573491 -0.001472138 -0.0042293817 0.0026337188 -0.004035224 0.0025289024 -0.0011347926 -0.004544156 -0.00053445046 -0.001400807
second -0.00015030324 0.0040165517 0.0019238152 0.0049629305 -0.0027523309 -0.0030539818 -0.0033226407 0.0045708064 0.0034288096 -0.00022819359 -0.0047067846 -0.0014600226 0.00035061323 -0.0010191558 0.0024114097 0.0033247995 0.0049265097 0.0012076896 0.0006012092 -0.0011727938 0.0015768938 -0.0013259369 0.0031459173 -0.0024386416 0.00055061345 0.0001351829 -0.0049037794 0.0028251584 -0.0016507823 -0.0046839872 -0.002174592 -0.0035153315 -8.575569e-05 -0.0022867017 -0.0007480671 -0.0028278518 0.0032995353 -0.0013804964 0.0045677656 -0.0033135617 -0.0030737175 0.0038547283 0.003735462 0.0049646283 0.0024593573 0.0045675323 -0.0049034622 -0.001970411 -0.0017400585 0.0016821134 -0.0026519247 -0.0015383407 -0.00056043133 -0.0015939439 -0.0020178852 -0.0043311543 0.0021926453 0.0013325287 0.0013565251 6.2861036e-05 0.004926957 0.0029611879 0.0030825573 -0.0020971936 0.0033438862 -0.0044756127 -0.0026580386 -0.004729312 -0.004351587 0.0018603588 0.0011783573 -0.003633999 0.00013564351 0.004717542 -0.0047726957 1.690166e-05 0.0015516592 0.0031512335 0.003521151 -0.0031134025 0.004673086 0.002582524 -0.0016255329 -0.0014742288 -0.0020423855 0.0029250835 -0.00038961004 0.0018144393 -0.00057735824 0.0028851547 -0.0013341069 0.0034337693 0.0023941393 0.0027524868 -0.0030043575 -0.0014895652 -0.002325921 0.0042807697 -0.004576622 -0.0025234316
yet -0.004213569 -0.0045894384 -0.0017050772 -0.0043007405 -0.0040961057 -0.0020720323 0.0047240006 0.0022858966 -0.004729456 0.0015351108 -0.0034457846 -0.0019183691 0.0028295503 -0.0026908189 0.0004393001 0.001548194 0.00070754014 0.0042903223 0.0038016918 -0.0045726076 -0.0010165498 -0.0029192094 -0.004207779 -0.0018019668 -0.0041142893 0.0022975784 -0.0038929828 0.00017513082 0.0043834583 -0.003679232 0.0010561369 0.0027029782 -0.002064521 -0.0015218036 -0.0043961485 -0.0006078576 -0.0027864536 -0.0021960847 0.0031265663 -0.00203364 -0.003618366 0.002218696 -0.0013523677 -0.003094449 -0.00029705005 0.00031065964 -0.0015834768 -0.004154375 0.004979227 -0.0018386804 0.002085846 -0.00456856 -0.00343621 -0.0014142861 0.0012948444 -0.0016459988 -0.0049477727 0.0029918225 -0.00032307912 0.0027865134 -0.0015619637 0.0025903438 -0.003412271 -0.00017284413 -0.0046077394 -0.004761885 -0.0015240381 0.00492445 -0.0032224066 -0.0013789278 0.00017804778 -0.0035743457 0.0017115066 0.000114644135 -0.002420543 0.0034867201 -0.0046923324 -0.0017683818 -0.0035811306 0.0006551311 -0.0036188108 -0.001375769 -0.0010694865 -0.00011308437 0.0015430232 -0.00046387882 0.0020985717 0.0013408284 0.003246563 -0.0036831622 0.0006692955 0.0005947028 -0.004523191 0.004574294 0.0048337886 0.0012678115 0.00077191653 0.003681971 -0.0037799282 0.0021305038
another -0.0049935146 0.0022285962 0.0010660641 0.0035550862 -0.0012333416 0.0046645985 -0.0029895052 0.00035335438 0.0039567086 -0.0035916646 0.0023042262 0.0005874932 -0.0023315027 0.0009412329 -0.0018918287 -0.0010681652 -0.00075598183 -0.0047366824 -0.0011756594 0.0025630821 -0.0033407605 -0.00085895666 0.0037681798 -0.0010279138 0.0022741635 -0.004202482 -0.004882364 -0.0005424178 0.0020748363 -0.00020919043 0.0027953351 -0.0011740011 -0.0017372266 0.00082205434 0.0017184078 -0.004038243 -0.00089890265 0.0036602544 -0.0011576726 0.001221211 0.0003088889 0.004194546 0.0026522353 0.0012971717 -0.0033833669 -0.0016651737 -0.0041267243 -0.0032484198 -0.00096260995 0.0038164882 0.0041032517 -0.004571229 0.0039145015 -0.004691172 -0.00022500167 0.0026116178 -0.0018403006 0.002355039 -0.0037026478 -0.0036906083 0.0021783162 -0.0031777052 0.0021546048 -0.0019284625 0.003859158 0.0032975466 -0.0013253632 -0.0038160097 -0.0011219791 0.0029459617 -0.0019808463 0.0007695521 -0.00011698726 0.002445148 -0.0005355862 0.0044545224 0.00083673245 -0.0027850075 0.0035579086 0.0027660741 -2.214043e-05 0.0035606967 -0.0008973 -0.0029666193 0.0019196633 0.0036059136 0.0026706662 -0.0023837194 0.0010260734 0.003853709 -0.00045256698 -0.0024160675 0.0027842487 -0.004620918 -0.0020089648 -0.0004079596 0.0046326863 -0.0005058577 0.0022095412 0.0012160344
one -0.004096106 -0.0015263085 -0.0037820127 0.0027839562 -0.0049090846 -0.0006788864 -0.00097255287 0.001230432 -0.003910498 -0.0023879255 0.0029965097 0.00073861604 -0.003074239 -0.004289325 0.0009625187 -0.0045103002 0.0030371235 0.004073278 -0.0040106387 0.0027223232 0.0046856017 -0.00422091 0.00035280248 -0.0019645877 -0.00050321483 0.0029612253 -0.00030698985 0.0012266262 -0.0025435905 0.0025992414 -0.0038989028 0.004605989 0.0049402923 -0.0035283414 -0.0018099766 0.002423115 0.00021546289 0.0030147845 -0.0022167189 -0.0037015723 0.0020015577 0.0049223173 -0.0024754691 -0.0043033534 0.004239156 -0.0038951917 0.0002900477 0.003753248 0.0012784518 0.0014194256 0.0016222914 -0.0035875111 0.004406412 -0.0012393254 0.002205898 0.004915496 0.0010131883 0.004723216 0.0046586217 -0.003533572 0.0006611237 0.002679414 0.0044832737 0.0037561445 0.0010805667 -0.0025232579 0.0017508215 0.003819424 -0.0030181073 0.001234458 0.00037408405 0.000831403 -0.0043650214 -0.0020884569 0.0011816494 0.0045875474 0.0019466778 -0.0032512466 0.002875865 0.0038574943 0.00049079966 0.0047612027 -0.0016279452 -0.0012874568 0.00268726 0.004694207 0.00095169095 -0.0028094542 0.0031827956 0.0027083096 -0.0038246843 0.0042530363 5.9861645e-06 -0.0024688602 2.5288206e-05 -0.0039050723 0.0041920193 -0.0034031381 -0.0033878628 0.00032970033
more -0.0015070013 0.0002806855 0.002538134 -0.0049172645 0.0015952573 0.00071439426 0.0036097504 -0.0019789187 -0.0003265662 0.0032971457 -0.0012689122 0.0003948815 -0.0043154894 -0.0041714315 -0.0048444304 0.003070463 0.0009596243 0.0005696608 -0.0036593548 -0.0010185683 0.0026498677 -0.0023385377 0.0029759945 0.003748759 0.002318201 0.0033353146 0.0029276432 0.0049727247 -0.0016458326 0.0024992856 0.0019805396 0.00088350486 0.00031150694 0.004692234 0.0011656645 -0.0023719212 0.0032479207 -0.0037112376 -0.0028260876 0.0017844903 0.0016126976 0.00035483856 -0.00475112 -0.0029506022 0.002162595 -0.001956447 -0.001067165 0.0010377163 0.004963342 0.0006640994 0.0013107532 -0.0011873977 -0.0020372504 -0.0023173264 0.0026301257 -0.002558742 0.001295512 0.00027605676 -0.0040262723 -0.00043815337 0.00027455777 0.00095120736 -0.0027727226 -0.0036857158 0.002678892 -0.0013042656 0.0045827683 0.00310672 0.003479062 -0.0019192097 0.0027057575 0.0012159424 0.0020017105 0.0023795075 0.00049620715 0.0031983799 0.0040201587 0.00018114885 0.0029197866 0.0005194232 0.001406078 -0.0025082564 0.0013766271 0.00023527569 0.0010228005 -0.0033814928 -0.002724229 0.0025254476 0.0004912788 -0.0011587271 -0.004745043 0.0027077363 0.0020129923 -0.0015322389 -0.00024420623 0.0010988744 -0.002584222 0.0038909994 -0.0027165676 -0.0023316406
and -0.00305832 0.0040548174 0.0029377548 0.0009913204 -9.708414e-06 -0.0013606728 -0.0019039185 -0.0015487106 -0.004729025 0.0037165915 0.003772118 0.0033401109 0.00036207828 0.0013794599 -0.0022503438 -0.00251466 -0.004390151 0.0048284917 0.0015760597 -0.0036782396 -0.0017107191 -0.0037085123 0.004457344 0.004702508 -5.5364064e-05 -0.0011065966 0.00020367127 0.0016717776 -0.0041934163 -0.0014174712 0.0006094176 0.0043219365 -0.004839861 -0.0033457521 0.003369423 0.00063381204 -0.0039383983 0.000878729 0.0035399469 0.0042873663 0.002578158 -0.004243682 0.003587283 -0.0007754548 0.004427813 -0.0049044364 0.00081396574 -0.00021965084 0.00230189 -0.00032232242 -0.0035466456 0.0034592361 -0.0020608974 0.0023802333 -0.00019010963 -0.0038844 0.0016426665 0.0011214333 -0.0016933612 0.0049774987 0.0035685152 -0.0009633059 -0.003553112 -0.0020053145 0.001678691 -0.0031060951 -3.6760888e-05 -0.0011337968 0.0045946552 0.004397634 -0.004884404 0.0020569633 -0.00417382 -0.003814807 0.0027804158 5.1734132e-06 0.004202192 0.00031929856 0.0011741505 0.002994453 -0.0038832563 -0.001855639 0.004684887 0.0007025462 -0.0030553904 0.0032786524 0.0030317972 0.0017330378 0.0049008452 0.00202009 -0.004069424 -0.003195833 0.0036616293 0.00031616207 -0.0009381822 0.0030724066 -0.003984335 0.002569581 -0.0027879395 -0.004926882
final -5.9457503e-05 0.002117976 0.0022528262 0.0035971003 0.004281392 0.00051668414 0.00469449 0.00409219 -0.0028255214 -0.004125183 -0.0048233145 -0.00409353 0.0017039353 0.0021392605 0.001792717 -0.004105087 0.00017381556 -0.004262829 -0.00080020557 -0.0012412192 -0.0049350415 -0.004608041 0.0031215409 0.0017693234 -0.0013457504 0.0022474723 -0.001093288 -0.0031619451 -0.0013751633 0.0010000194 -0.0043630665 0.001176771 6.573968e-05 -0.0017828814 -0.0019878345 -0.002487256 -0.0042412993 -0.0023339405 -0.0048027537 0.0030476374 0.001423798 0.0013677267 0.0043919296 -5.3318196e-05 -0.0017793004 0.0023252808 0.0035646504 0.0014527446 -0.0032563542 0.0019197766 -0.0047355792 0.0024692167 -0.0011909553 -0.00047211986 0.0029292752 -0.0035922055 -0.0008712172 -0.0006511074 -0.0018231454 -0.0024119536 -0.0023066103 0.0044899806 0.0039656926 0.0016338765 0.003337529 0.00023060215 -0.0021437784 -0.0024406288 0.004451022 0.00020866125 -0.0014888777 0.002890395 -0.0029916232 0.0034642825 -0.0007133707 0.001452564 -0.002590974 -0.0021261491 0.0033813997 0.0040079267 0.0013213239 -0.002429472 -8.684419e-05 -0.00223906 -0.0023893742 0.0044530374 0.0034483336 0.00093318505 0.0011696306 -0.0021851393 0.001991059 -0.0008629691 0.0009655445 0.00025048348 0.0026600594 -0.0038707084 0.0004501933 -0.0020241032 0.0046533486 -0.0033142064
